digraph Tree {
node [shape=box, fontname="helvetica"] ;
edge [fontname="helvetica"] ;
0 [label="petal width (cm) <= 0.8\ngini = 0.666\nsamples = 100\nvalue = [34, 35, 31]\nclass = versicolor"] ;
1 [label="gini = 0.0\nsamples = 34\nvalue = [34, 0, 0]\nclass = setosa"] ;
0 -> 1 [labeldistance=2.5, labelangle=45, headlabel="True"] ;
2 [label="petal width (cm) <= 1.75\ngini = 0.498\nsamples = 66\nvalue = [0, 35, 31]\nclass = versicolor"] ;
0 -> 2 [labeldistance=2.5, labelangle=-45, headlabel="False"] ;
3 [label="petal length (cm) <= 5.35\ngini = 0.149\nsamples = 37\nvalue = [0, 34, 3]\nclass = versicolor"] ;
2 -> 3 ;
4 [label="petal width (cm) <= 1.65\ngini = 0.105\nsamples = 36\nvalue = [0, 34, 2]\nclass = versicolor"] ;
3 -> 4 ;
5 [label="gini = 0.057\nsamples = 34\nvalue = [0, 33, 1]\nclass = versicolor"] ;
4 -> 5 ;
6 [label="gini = 0.5\nsamples = 2\nvalue = [0, 1, 1]\nclass = versicolor"] ;
4 -> 6 ;
7 [label="gini = 0.0\nsamples = 1\nvalue = [0, 0, 1]\nclass = virginica"] ;
3 -> 7 ;
8 [label="petal length (cm) <= 4.85\ngini = 0.067\nsamples = 29\nvalue = [0, 1, 28]\nclass = virginica"] ;
2 -> 8 ;
9 [label="sepal width (cm) <= 3.1\ngini = 0.444\nsamples = 3\nvalue = [0, 1, 2]\nclass = virginica"] ;
8 -> 9 ;
10 [label="gini = 0.0\nsamples = 2\nvalue = [0, 0, 2]\nclass = virginica"] ;
9 -> 10 ;
11 [label="gini = 0.0\nsamples = 1\nvalue = [0, 1, 0]\nclass = versicolor"] ;
9 -> 11 ;
12 [label="gini = 0.0\nsamples = 26\nvalue = [0, 0, 26]\nclass = virginica"] ;
8 -> 12 ;
}